-0.034911 -0.083801 -0.067190 -0.090357 -0.066207 0.019007 0.084286 0.105785 0.085581 0.015389 0.046275 0.058551 0.080445 0.098515 0.114647 -0.088423 -0.255360 -0.176230 -0.166787 -0.021442 0.066308 -0.113262 -0.114060 -0.030545 0.029599 -0.003350 0.042310 -0.025863 0.100792 -0.019164 0.051749 -0.017765 -0.099616 -0.041540 -0.098030 -0.014596 -0.074854 -0.064664 -0.129843 -0.073002 0.104537 0.056491 0.159276 0.123488 0.022686 -0.056101 0.081391 0.056691 -0.036606 0.069292 0.052461 0.073938 -0.041160 -0.004720 0.005096 -0.007428 -0.090607 -0.105806 -0.016574 -0.060644 -0.000908 -0.044716 -0.025497 -0.027725 -0.002376 0.065663 -0.039576 0.080006 -0.024907 -0.047524 -0.000722 -0.002487 0.059492 -0.038523 -0.062507 -0.011248 -0.069625 -0.019924 -0.059261 -0.140723 0.040403 0.041121 0.037795 0.088831 0.100108 0.080649 0.067341 0.092754 0.176970 0.056583 -0.090036 -0.142250 -0.280399 -0.261381 -0.021693 0.013187 0.014557 -0.021492 0.028543 0.013820 0.089480 -0.045865 0.024724 0.083300 0.073345 0.038670 -0.086540 -0.126097 -0.143099 -0.052249 0.035917 -0.112235 -0.023505 -0.107304 -0.118940 0.046238 0.125920 0.156016 0.008714 0.043064 0.071646 0.088564 0.086313 0.080073 0.071723 -0.049969 -0.117959 -0.137849 -0.124484 -0.088086 -0.017329 0.063933 0.136198 0.124418 0.118822 0.097033 0.156016 0.184482 0.084115 0.165054 -0.155165 -0.188270 -0.314272 -0.250838 -0.146404 -0.034634 0.005216 -0.079728 -0.070925 -0.023246
0.119440 -0.061859 -0.234729 -0.150192 -0.127638 -0.038710 -0.086738 0.013241 -0.033901 -0.109701 -0.075942 0.037071 0.123923 0.138182 0.154471 -0.122657 -0.132893 0.036702 0.030890 0.059049 -0.120441 -0.065891 -0.100422 0.083118 -0.103085 -0.110662 0.020474 0.002584 0.072068 -0.000332 -0.046113 0.003114 0.040760 -0.050978 0.079888 0.069227 0.067157 -0.082657 -0.025192 -0.140772 0.100119 -0.015085 0.056437 -0.033436 -0.062722 0.008860 0.025578 0.049680 -0.005139 0.019079 -0.102973 0.064177 0.090027 0.082523 0.072081 -0.073575 -0.037978 0.056404 -0.069629 0.080285 -0.065427 -0.073673 0.014885 -0.094787 -0.064392 0.068835 0.064692 0.069409 -0.046153 -0.101083 0.082821 -0.017609 -0.034067 0.005716 -0.067748 0.151856 -0.068230 -0.265904 -0.241085 -0.107962 0.017637 -0.024423 0.010378 -0.006938 -0.221690 -0.151574 -0.035226 0.114592 0.135497 0.074375 -0.129581 -0.043922 -0.016261 0.013513 0.116257 -0.000760 -0.055675 -0.059432 0.081694 0.038179 -0.098075 0.103625 0.069310 -0.008480 0.078766 -0.074073 0.074481 -0.069511 0.030233 0.063731 0.035922 0.055497 -0.063056 -0.088041 -0.154842 0.029049 -0.019230 0.012260 -0.057271 -0.033219 0.084141 0.039207 -0.011334 -0.056675 -0.076213 0.179342 -0.130610 -0.192435 -0.187782 -0.164318 0.037451 0.027704 0.053525 -0.059928 -0.179383 -0.090194 -0.022720 0.004665 0.058225 0.088211 -0.118336 -0.104308 -0.036035 0.029787 0.004551 0.012989 -0.044182 0.021011 -0.001595 -0.048912
-0.103625 -0.014626 0.018116 -0.078876 -0.027093 0.067904 0.156096 -0.011993 -0.018705 -0.040093 0.041181 0.066397 -0.051279 -0.076025 -0.120102 0.045606 -0.004114 -0.071289 0.008292 -0.021009 0.046292 -0.028163 0.017815 -0.020768 -0.096316 -0.123437 -0.082529 -0.054638 -0.115718 -0.117831 -0.179605 -0.106223 -0.089507 -0.088667 -0.076905 -0.174415 -0.248241 -0.092769 -0.001193 -0.018432 -0.136531 -0.172562 -0.019053 -0.013344 0.031911 -0.042469 -0.089886 -0.134480 -0.139687 -0.127469 0.008052 -0.064440 0.000471 -0.039017 -0.115443 -0.096302 -0.059253 -0.050772 -0.118061 -0.003536 -0.056164 -0.095298 0.015962 -0.010409 -0.054096 0.025258 -0.017221 -0.022558 -0.054074 -0.097411 0.025068 -0.084755 -0.116715 0.003751 0.000582 -0.003534 0.005149 -0.060423 0.016165 0.066585 0.033111 0.077813 0.036589 -0.000495 0.032940 0.078880 0.171244 -0.041278 -0.089287 -0.015374 0.028369 -0.009219 -0.069640 -0.104054 -0.092300 -0.079960 0.087308 0.005777 -0.005940 -0.010890 -0.046230 -0.158692 -0.037248 -0.044085 -0.129025 -0.041668 -0.240662 -0.112949 -0.141592 0.023939 -0.120847 -0.104142 -0.042452 -0.010589 -0.066254 -0.174941 -0.129576 -0.080011 -0.084041 -0.089688 -0.066434 -0.108973 -0.104847 -0.161185 -0.009580 -0.010641 0.086465 0.026057 -0.063864 0.076172 -0.047632 0.179979 -0.037346 0.035049 -0.077664 0.124023 0.074674 -0.160785 -0.020263 -0.028503 0.121050 0.060260 0.029285 0.023029 -0.091832 -0.077289 0.085299 -0.022000 0.041448 -0.127527
0.022435 -0.048712 -0.103723 -0.110584 -0.171558 -0.078063 -0.029034 -0.041791 -0.125760 -0.188230 0.084462 0.124725 0.163988 0.162794 0.034475 0.029444 0.024589 -0.106027 0.011947 -0.008892 -0.098175 -0.019157 -0.019443 -0.127870 -0.103761 0.103271 0.064912 0.085586 0.086348 0.016683 0.066297 -0.067206 0.000234 0.059390 0.103194 -0.057531 -0.092358 -0.045254 -0.140866 -0.133464 -0.081769 -0.036435 -0.004628 -0.050658 -0.075556 -0.033788 0.089867 0.020213 -0.027542 0.015501 -0.052449 0.073241 0.073545 -0.046035 -0.035765 -0.048049 -0.048571 0.001216 -0.073793 -0.038998 0.025008 -0.059627 -0.078938 -0.112427 -0.002437 -0.002927 -0.030289 -0.048149 0.013094 0.004506 0.058246 0.049733 0.009961 -0.049906 0.052981 -0.037493 -0.129786 -0.026945 -0.107665 -0.181750 -0.100015 -0.055642 -0.040369 -0.063171 -0.210880 0.085056 0.027520 0.148920 0.108387 0.084926 0.057233 -0.071161 -0.086673 -0.007711 0.103481 -0.150333 -0.101361 -0.144357 -0.121684 -0.069317 0.007655 -0.018043 0.070988 0.059990 -0.006971 -0.033057 0.019730 -0.012487 0.078309 0.034549 -0.089543 -0.109395 -0.111116 -0.104107 -0.063088 -0.029524 0.031416 -0.023494 0.051992 -0.027644 0.012476 0.114985 0.062734 -0.031245 -0.054456 0.008086 -0.040378 -0.034467 -0.166512 -0.065204 -0.014696 0.011108 -0.005590 -0.022116 -0.137726 0.001439 0.079129 0.190462 0.169687 0.125297 0.095454 0.033351 -0.087022 -0.089100 0.094061 -0.038856 -0.105850 -0.066128 -0.085421 -0.054432
-0.060064 -0.078372 -0.084152 0.016656 0.072548 0.054155 0.075210 -0.015118 -0.104441 -0.192260 0.025107 0.016876 0.053881 0.116460 -0.017460 0.112368 0.053382 0.154803 0.177892 0.088191 -0.004036 -0.075900 -0.114280 -0.140270 -0.102156 -0.012794 -0.040345 -0.009696 0.020715 -0.012546 0.042481 0.056251 0.059164 0.066902 -0.010830 0.063430 -0.090283 -0.048718 -0.099149 0.009144 -0.112722 -0.089672 -0.133113 -0.153390 -0.109615 0.070846 0.006616 0.051374 -0.033560 0.103997 -0.008561 -0.050961 0.082660 -0.007029 0.080397 -0.069297 -0.080350 -0.053155 0.053458 0.022923 -0.080634 0.006501 -0.014877 0.006065 -0.052212 -0.076657 0.026416 -0.086486 -0.004435 0.023421 -0.058189 -0.026284 0.025028 -0.053212 0.041465 -0.068734 -0.139422 -0.173003 -0.001470 -0.008533 -0.041794 -0.015484 -0.091339 -0.197107 -0.130473 -0.064308 0.065226 0.061310 -0.007805 -0.042069 0.028598 0.124531 0.085590 0.094414 0.175971 0.070421 0.019820 -0.143182 -0.139264 -0.115705 0.084567 -0.008128 -0.008854 0.026169 -0.008352 0.005673 -0.004018 -0.042792 0.088455 0.103414 -0.002799 -0.098045 0.009772 0.004076 -0.004690 -0.079250 -0.050185 -0.123051 -0.042221 -0.001449 -0.021545 -0.041914 0.074016 0.088853 0.073824 -0.102554 -0.078180 -0.149678 -0.118630 -0.019603 0.064496 0.046712 -0.111850 -0.072514 -0.103052 0.041569 0.067725 0.004908 0.105990 0.075866 0.116462 0.032975 0.068946 0.196273 0.198593 0.054756 -0.068593 -0.097628 -0.183196 -0.142327
0.050770 -0.049057 -0.066890 -0.042108 -0.018729 0.009455 0.099439 0.066994 -0.196646 -0.022621 -0.195129 0.109228 0.290129 -0.074298 -0.137945 -0.152280 -0.134538 0.198452 0.084605 -0.091030 -0.053632 -0.101329 0.015960 0.055075 -0.086740 -0.050898 0.053152 0.043296 -0.062665 -0.022299 0.014369 -0.018313 0.045380 0.079454 0.078450 0.021061 -0.044307 -0.228420 0.034409 0.136864 0.094904 0.119787 -0.245712 -0.099811 0.072592 0.074414 -0.039013 -0.104515 -0.057561 -0.027254 0.027307 -0.017953 -0.021842 0.045086 0.045945 0.077018 0.006412 -0.019760 0.085032 0.066087 -0.025679 0.014387 -0.058365 -0.038109 -0.000508 -0.006083 -0.051593 -0.097523 -0.006922 0.078410 0.001701 -0.071670 0.015405 -0.053770 0.077917 -0.091008 -0.000733 0.018467 -0.022624 -0.009391 -0.078400 0.119208 0.071247 -0.203098 -0.107807 -0.123209 0.045000 0.271193 -0.121630 -0.171864 -0.178688 -0.092886 0.207980 0.153002 -0.181255 -0.108674 -0.152858 0.012982 0.161216 -0.029942 -0.036740 0.040706 -0.007363 0.057409 -0.034324 -0.059683 -0.047110 0.016193 -0.016675 0.032366 0.067635 -0.037665 -0.193632 -0.013861 0.002741 0.062015 -0.017960 -0.287850 -0.117673 0.005962 0.032201 0.093017 -0.007202 -0.122370 0.070360 0.042404 0.018623 -0.007163 -0.010917 0.090814 0.038611 0.164926 0.016391 -0.180586 -0.084540 -0.054024 0.046477 0.231521 -0.115117 -0.169297 -0.142650 -0.131729 0.329656 0.068857 -0.126880 -0.051248 -0.178959 0.144646 0.090744 0.019094
0.021147 -0.081810 -0.183533 -0.013186 0.086218 -0.086253 -0.060302 0.085752 0.141811 0.039566 0.014773 0.214169 0.110211 -0.106198 -0.107188 0.109072 -0.004771 0.016360 -0.047015 -0.112131 -0.066622 -0.029466 -0.054231 0.054723 0.014353 -0.016699 0.031149 0.079818 -0.043135 0.027021 0.061445 0.030404 -0.019742 -0.124513 -0.100888 -0.065058 -0.166505 -0.093887 0.051057 0.002503 -0.067086 0.063562 -0.073779 -0.018963 0.087284 0.081614 0.075361 -0.051594 -0.057856 -0.090266 -0.079821 -0.060060 0.100356 0.070756 0.017538 -0.018020 0.059181 -0.071305 -0.002805 -0.031022 -0.084078 -0.098120 -0.081638 -0.095101 0.042681 -0.063899 0.024963 0.039164 -0.023185 0.040951 0.022486 0.077821 -0.062758 -0.037972 -0.043428 0.046132 -0.233088 -0.254323 -0.065149 0.084523 -0.045354 -0.116601 0.056142 0.214252 0.025278 0.033569 0.137795 0.143564 -0.041680 -0.196776 0.010890 -0.074620 -0.049708 -0.013338 -0.005759 -0.106558 -0.104855 -0.077926 0.085453 0.080931 0.075493 0.066760 0.028456 0.009823 0.003485 -0.063399 -0.011797 -0.175726 -0.212000 -0.051626 -0.102926 -0.207034 -0.132775 -0.026063 0.056638 -0.122961 -0.105916 -0.018215 -0.043898 -0.017252 0.082924 0.065402 0.018052 -0.076551 -0.082066 -0.017219 -0.232718 -0.209354 -0.138068 0.073633 -0.155345 0.034155 0.182322 0.204729 0.065297 0.139261 0.178392 0.129114 -0.046698 -0.206389 0.138359 -0.021782 0.002593 -0.037790 -0.019715 -0.125568 -0.161967 0.045247 0.057339 0.042856
-0.001698 0.041421 -0.039476 0.017694 -0.024894 0.016674 -0.040630 0.053416 0.158999 0.216704 -0.247196 -0.246487 -0.285369 -0.207427 -0.047343 -0.003570 -0.143784 -0.120236 -0.046597 -0.099954 0.171619 0.180731 0.211495 0.102606 -0.039955 -0.135239 -0.072821 0.054598 0.039851 0.024147 -0.108529 -0.095486 0.036340 -0.056595 -0.147216 0.043299 0.045465 0.065800 0.071394 0.031410 -0.031783 0.040952 0.011367 0.104624 0.084815 -0.015438 0.009614 -0.015425 -0.120827 0.006638 -0.090478 -0.011771 -0.016854 0.064664 -0.063874 -0.111556 -0.050107 -0.014703 0.021135 0.020099 0.092796 0.062059 0.012811 0.004466 -0.050441 0.031613 -0.037890 0.054473 0.081226 0.092490 -0.126209 0.016699 -0.095694 -0.038404 0.059568 0.126002 0.015574 0.093029 -0.044094 0.049426 0.158223 0.040912 0.072335 0.072485 0.097593 -0.238664 -0.243075 -0.288653 -0.214871 -0.015459 -0.140233 -0.169185 -0.130575 -0.174177 -0.042667 0.079407 0.084526 0.113023 0.019821 0.066855 0.000607 -0.084686 -0.046385 0.065507 -0.063908 -0.028767 -0.105927 -0.106413 -0.052393 -0.117148 0.097831 0.043120 0.069628 -0.004022 0.031681 0.110729 0.033238 0.008863 -0.023120 0.127437 -0.030010 -0.035320 -0.041465 0.004910 0.018092 0.137458 0.109468 0.071879 0.122465 0.051296 0.088457 0.014319 0.072910 0.168028 0.221961 -0.240131 -0.268887 -0.202057 -0.126515 0.058073 -0.057980 -0.112273 -0.125624 -0.224268 -0.152835 0.114631 0.069444 0.058784 0.133368 0.046193
-0.179296 -0.258782 0.086405 0.140485 -0.010235 -0.256998 -0.195387 0.131540 0.119682 -0.214311 -0.198767 0.011228 0.250863 -0.021698 -0.139653 -0.114856 0.026164 0.033285 -0.004031 -0.028998 0.024448 -0.029947 0.055248 -0.057996 -0.090436 0.007071 0.052442 -0.072604 -0.066616 -0.055471 0.103377 -0.023504 -0.176685 -0.165344 0.097229 0.122158 -0.076879 -0.246757 0.015646 0.058403 0.070324 -0.106459 -0.046893 0.056016 -0.012521 -0.009448 0.032194 -0.009807 0.000712 -0.012728 -0.027300 -0.020747 0.050884 -0.063900 0.062890 0.099914 -0.018468 -0.086851 -0.089410 0.019426 0.088160 0.033609 -0.153990 -0.076385 -0.041719 -0.062241 0.020786 -0.105860 -0.004174 -0.006332 0.010522 -0.024782 0.015962 -0.011891 0.038932 -0.103162 -0.274142 0.050052 0.153610 -0.074631 -0.178892 -0.248207 0.207188 0.203579 -0.244420 -0.183324 0.034933 0.177784 0.005982 -0.128060 -0.079044 0.087113 0.098261 -0.033051 -0.122572 -0.015167 -0.013354 0.045488 -0.057188 -0.139738 0.043124 0.106229 -0.034724 -0.081159 -0.001395 0.125726 0.058785 -0.227541 -0.168542 0.050538 0.069551 0.074329 -0.232399 0.004851 -0.030466 -0.056234 -0.044829 -0.139870 -0.018109 0.017299 -0.070052 0.032788 -0.081788 0.038351 0.012906 -0.161135 -0.358422 0.063178 0.069321 -0.013878 -0.325028 -0.266047 0.178670 0.096763 -0.208968 -0.208987 -0.029487 0.247378 0.067666 -0.160595 -0.158416 0.051341 0.168622 -0.078010 -0.169340 0.020420 0.044086 0.010244 -0.025709 -0.020364
-0.020034 0.099154 0.160780 0.069444 0.047414 0.061098 0.123466 0.002351 -0.088496 -0.144774 -0.211344 -0.270595 -0.121819 -0.066390 0.010358 0.035124 0.001376 0.047962 0.060746 0.011005 0.037285 0.110725 0.019279 -0.029712 -0.045116 0.030717 0.006770 -0.098621 -0.068759 -0.052123 -0.055267 0.032481 -0.089728 0.044036 -0.048055 0.039801 0.098609 0.098027 0.043144 -0.025620 -0.062434 -0.037152 -0.041874 -0.043756 0.079594 -0.108965 -0.124700 0.040044 0.028613 0.064188 -0.102139 -0.114921 -0.097679 -0.073421 -0.010050 0.018856 0.020380 -0.086449 0.029024 -0.040121 0.047043 0.068878 0.045052 0.046964 -0.003166 0.036595 0.012698 0.069737 0.014898 -0.047016 0.011913 -0.030976 0.062509 -0.016357 0.080179 -0.024311 0.090610 0.030958 0.152161 0.011971 0.064785 -0.018881 -0.055955 0.001732 -0.147406 -0.124077 -0.322910 -0.225922 -0.146209 -0.001122 0.074822 -0.006294 -0.028243 0.009388 0.059364 -0.004404 0.057766 -0.053178 0.038987 -0.018231 0.003011 -0.013768 -0.148888 -0.093309 -0.027078 -0.033795 -0.073297 -0.075510 -0.030870 0.020705 0.145282 0.096465 0.147815 -0.009844 0.013378 -0.092808 -0.065579 0.022704 -0.029378 0.062530 -0.016166 -0.144161 -0.026531 -0.015935 -0.036547 -0.025714 0.025304 0.134074 0.120652 0.051287 0.016808 0.095106 0.041130 -0.051420 -0.116777 -0.232502 -0.281978 -0.231704 -0.175597 -0.086887 0.008577 -0.062907 -0.001696 0.003716 -0.010553 0.137509 0.139472 0.051675 -0.003829 -0.000270
-0.065521 0.016422 0.002262 -0.046388 0.028217 0.142249 0.009817 -0.079426 -0.047918 -0.106842 -0.071526 0.089658 0.098323 0.163029 -0.068650 -0.055602 0.051911 0.033597 0.147780 0.052023 -0.131998 -0.186656 -0.134500 -0.020141 0.019466 0.018180 0.052606 0.032560 0.014049 0.014410 -0.093093 -0.077071 -0.059647 0.051160 -0.034704 -0.060236 -0.016821 -0.082518 -0.197767 0.066315 0.012619 0.009392 -0.120755 -0.131228 -0.029367 0.104661 0.111150 0.008065 -0.048794 -0.008353 0.021880 0.041583 -0.086051 -0.019295 -0.004484 -0.060613 0.040708 -0.041376 -0.098717 -0.042462 -0.016195 -0.112957 -0.056624 0.010976 -0.000841 -0.015028 0.064386 0.021284 -0.005583 -0.024919 0.022791 -0.035173 0.026344 0.070672 -0.009171 -0.084835 0.001279 -0.001073 0.036722 -0.029326 0.082225 0.032004 -0.074436 -0.054279 -0.050404 0.018191 0.180842 0.085367 0.107122 -0.061911 -0.159214 0.043590 0.121024 0.092257 0.135747 -0.024916 -0.191540 -0.139523 0.038082 -0.013915 -0.008092 -0.056169 0.051937 -0.014058 0.018113 0.026910 -0.045405 -0.090584 -0.012234 0.022014 0.023225 -0.046407 -0.195387 -0.174712 0.060167 0.050723 0.004806 -0.043431 -0.089911 -0.109019 0.048119 0.070021 -0.028414 0.020269 -0.003686 0.039652 -0.125820 0.002952 -0.073173 0.010159 0.130796 0.017146 -0.072406 -0.049262 -0.167832 0.036306 0.158636 0.178559 0.086927 -0.010358 -0.031047 -0.037379 0.116426 0.144069 0.109736 -0.168965 -0.223604 -0.145943 -0.113130 0.079257
0.150372 -0.016211 -0.144119 -0.136746 -0.138649 0.018368 0.140872 0.211298 -0.008332 -0.046260 -0.154438 0.003962 0.103062 0.062958 0.045984 -0.042464 -0.130023 -0.046776 -0.012957 0.012894 -0.017777 0.042362 -0.111181 0.018472 -0.052130 -0.126345 0.026310 0.003139 -0.019429 0.028518 -0.057411 -0.184627 -0.201542 -0.151880 -0.047763 -0.029718 -0.095815 -0.088842 -0.199150 -0.051398 0.093807 0.002380 -0.069689 -0.032123 0.032555 -0.017164 -0.025861 0.016843 -0.018003 -0.001435 0.010531 0.015404 -0.039971 -0.013157 0.064628 -0.011034 -0.040094 0.006774 -0.009633 0.008056 0.082560 -0.102487 -0.064232 -0.050654 -0.038496 -0.025758 0.026210 -0.079568 -0.062500 0.042728 -0.034493 -0.032055 0.025560 -0.035644 0.003171 -0.004483 0.047573 -0.220260 -0.138985 -0.180549 -0.044569 0.192956 0.106666 0.064318 -0.036447 -0.011885 0.043361 0.154348 0.071160 -0.028281 -0.043790 -0.070354 -0.012044 -0.045950 -0.052436 -0.031303 -0.097144 0.021439 0.055434 -0.035421 -0.113851 0.036314 -0.023758 -0.047249 -0.058609 -0.030508 -0.101993 -0.113513 -0.066494 -0.016514 0.030975 0.042153 -0.188078 -0.162089 0.021779 -0.004998 0.074793 0.000152 -0.032671 -0.059674 -0.080318 0.035967 0.042923 -0.097025 -0.053526 0.087491 0.049573 -0.158227 -0.192006 -0.042444 -0.001165 0.223775 0.166644 0.118962 -0.015826 -0.060363 0.095554 0.128177 0.179190 0.038794 -0.148361 -0.046747 -0.087597 0.062720 0.002313 -0.028853 -0.055106 -0.024765 -0.036800 0.034061
-0.012634 -0.006370 0.107901 -0.096698 -0.083717 -0.123841 0.143181 0.071356 -0.200592 0.000004 -0.190928 0.169843 -0.003393 -0.190173 0.005107 -0.064848 0.193475 -0.053023 -0.040545 0.020847 -0.090560 0.143840 -0.062807 0.011459 0.033787 0.030958 -0.082718 -0.073217 0.007631 -0.088051 0.040909 -0.128580 -0.066849 0.101990 -0.082576 0.005259 -0.216896 0.019128 0.098983 -0.090134 0.104150 -0.132078 -0.103201 0.025175 -0.012460 0.027557 -0.059193 -0.052448 -0.055364 0.013501 -0.084399 -0.112351 -0.009432 -0.004724 -0.011512 -0.040836 0.022231 -0.082189 -0.030065 -0.085175 -0.066909 -0.044785 -0.054514 0.059892 0.051885 0.042593 0.004865 -0.078514 0.035538 0.011136 -0.021540 -0.052326 -0.077098 -0.021522 -0.105191 -0.103751 -0.001500 0.029713 -0.023097 -0.114054 -0.191588 0.118454 0.049678 -0.143941 -0.052402 -0.168806 0.061409 0.068497 -0.192631 0.104827 -0.062905 0.189437 -0.054169 -0.047386 -0.013399 -0.041541 0.029575 0.044472 -0.033341 0.049783 0.054590 -0.003385 -0.095355 0.045367 -0.064397 -0.039917 -0.022051 -0.035867 0.003504 -0.084128 0.075672 -0.187711 -0.095272 0.025364 -0.105721 0.100709 -0.242598 -0.058789 -0.082184 -0.061658 0.024087 -0.068754 -0.067121 0.008333 0.035853 -0.043418 0.041482 -0.016323 -0.083788 -0.076064 -0.213512 0.116720 0.023596 -0.164742 -0.017976 -0.214028 0.207443 -0.037815 -0.271519 0.062632 -0.180626 0.134464 -0.050808 -0.090162 0.034061 -0.010422 0.139092 0.093303 0.036494 0.063635
-0.148834 -0.184455 -0.118099 -0.162082 -0.203946 -0.010143 -0.043722 -0.010662 0.053460 0.072076 -0.050134 0.006462 0.055101 0.091582 0.136021 0.020961 -0.064333 -0.040140 -0.091526 -0.008372 0.103987 -0.040169 -0.108097 -0.160607 0.010825 0.085754 0.097885 0.095741 0.012004 0.069858 0.057512 -0.001915 -0.041476 0.031988 -0.068051 0.035723 -0.026839 -0.069872 -0.078462 -0.060584 0.048723 0.068975 -0.004094 0.077461 -0.053009 -0.019972 -0.055668 0.023811 0.090117 -0.053832 0.016750 -0.073405 -0.015434 -0.036281 0.009744 -0.059990 0.022293 -0.083122 -0.007957 -0.065069 -0.054727 0.064157 -0.013610 -0.089735 -0.084960 -0.043302 -0.048562 0.003824 -0.011908 0.052411 -0.016647 -0.052116 0.065884 0.017800 -0.021240 -0.027630 -0.067188 -0.234810 -0.255612 -0.287132 -0.130509 -0.122304 -0.018284 0.012095 0.020307 -0.141892 -0.103460 0.114587 0.189862 0.176358 -0.033013 -0.131798 0.064624 -0.063170 0.020833 0.121526 0.044673 -0.020852 -0.155361 -0.082181 -0.042858 0.073154 -0.025178 0.016730 0.104575 0.072209 -0.038330 -0.063784 0.025289 -0.040054 -0.056205 0.081905 -0.089380 0.005420 -0.012805 0.059479 0.000644 0.011790 -0.073382 0.029393 -0.022368 0.056758 -0.025144 0.094557 0.068221 -0.114324 -0.118688 -0.239200 -0.255846 -0.299179 -0.109045 -0.079312 -0.089159 0.058215 0.157560 -0.054873 -0.100725 0.038261 0.095596 0.138136 0.027966 0.000704 -0.076909 -0.021895 0.010451 0.053031 0.071040 -0.061780 -0.075591 -0.127814
-0.041825 -0.053534 0.020959 -0.003401 0.146266 -0.199801 -0.183922 -0.165290 0.004267 0.034865 0.059564 -0.050103 -0.154167 -0.157002 -0.033216 -0.006178 0.012782 -0.082631 -0.158559 -0.188768 0.065257 0.095443 0.089712 0.036272 -0.033623 -0.051335 0.074679 -0.066954 -0.028246 -0.003340 0.070783 0.012484 -0.044829 0.077519 0.002823 0.087638 0.072825 0.083037 0.071792 0.014769 -0.050253 0.005372 0.083156 0.079816 0.125598 0.062704 0.041188 -0.070697 -0.045170 0.011916 -0.032672 -0.030133 -0.041810 0.046851 -0.035838 0.104321 -0.041078 -0.072847 0.010817 0.008532 -0.028771 -0.027617 0.041971 0.026764 0.000458 0.029096 -0.048476 0.058792 -0.044572 -0.017492 0.010139 0.026659 -0.021799 -0.067416 0.001084 -0.133394 -0.026319 0.009939 0.086909 0.070914 -0.273929 -0.273609 -0.174161 -0.087958 0.041105 0.045312 -0.053030 -0.138953 -0.188471 -0.110567 0.065178 -0.003257 0.051498 -0.126929 -0.227859 -0.002121 0.156403 0.142954 0.039653 -0.019973 0.103626 0.052342 0.040782 -0.084334 -0.024721 0.129784 -0.004754 0.110324 -0.037345 -0.024956 0.011999 0.060873 0.079215 0.013575 0.072602 0.017035 -0.011882 -0.073599 0.115320 0.026798 -0.057874 0.059944 -0.063480 0.058476 0.068476 -0.166601 -0.069606 -0.018020 0.096899 0.175193 -0.232570 -0.272662 -0.139180 -0.072617 0.077206 -0.008430 -0.187867 -0.211898 -0.119801 -0.036764 0.076801 0.035127 -0.031347 -0.065890 -0.162899 0.031073 0.108725 0.031698 -0.041468 -0.044338
-0.127156 -0.165858 0.011372 0.166143 -0.012175 -0.146325 -0.128806 0.139974 0.045815 -0.208576 -0.120614 0.149427 0.187383 -0.240714 -0.247883 0.096502 0.080785 -0.083857 -0.248995 -0.092046 -0.052057 0.012237 -0.067955 -0.059634 -0.064043 0.056039 0.118524 -0.075646 -0.113877 -0.002322 0.047923 0.059224 -0.144011 -0.045106 0.022221 0.072242 -0.049693 -0.162534 0.109586 0.043228 0.033466 -0.136142 -0.021592 0.118110 0.080122 -0.001659 -0.069329 -0.100909 -0.054706 0.051090 -0.059528 -0.004569 0.025375 0.002921 -0.082030 0.041481 0.012137 -0.000491 -0.037168 0.049955 0.014784 0.032750 -0.064129 -0.017796 0.040380 -0.065094 -0.022074 0.042749 -0.021433 -0.053617 -0.005597 -0.029354 -0.049444 0.066500 0.019979 -0.101272 -0.159613 -0.014630 0.034979 -0.005875 -0.204738 -0.061235 0.236092 -0.015854 -0.152235 -0.063878 0.128098 0.112492 -0.200236 -0.316237 0.026006 0.170150 0.058381 -0.258477 -0.074114 -0.036822 0.001047 -0.000444 -0.136289 0.022666 0.074467 0.039260 -0.039484 -0.136577 0.006309 0.088654 0.093179 -0.223227 -0.124694 0.053644 0.127105 -0.061341 -0.076883 0.082106 0.057901 0.024975 0.001773 -0.057875 0.041887 -0.033267 -0.020455 -0.029484 0.031507 -0.070254 0.046063 -0.125642 -0.166501 -0.001220 0.146152 -0.107541 -0.212267 -0.067855 0.246083 0.025972 -0.139852 -0.160439 0.031831 0.173414 -0.231369 -0.207086 0.075374 0.174286 0.049345 -0.328887 -0.194228 -0.005709 0.065318 -0.060803 -0.030962 -0.029831
