-0.015983
-0.036509
0.042504
-0.033140
-0.017391
-0.012866
0.046748
-0.041937
0.047251
0.055658
-0.015870
0.044485
0.008292
0.017891
0.033399
0.017482
0.032042
0.032911
0.026689
-0.000847
0.000712
0.002103
-0.050361
-0.057409
-0.040829
-0.024442
0.030969
0.050146
-0.022262
-0.008202
-0.014873
-0.064806
-0.073627
-0.039220
0.029373
-0.059233
0.065824
-0.057218
0.059678
0.017129
0.105166
-0.032070
-0.068133
-0.005228
-0.016226
0.023470
0.104289
0.102051
0.044424
0.012682
-0.020642
-0.005163
0.009653
0.024057
0.107244
-0.051125
-0.038515
0.062573
0.078742
-0.006030
-0.021782
0.001835
-0.023225
0.004310
0.003591
0.013735
-0.029617
0.029600
0.069410
-0.013414
0.038594
0.034694
-0.003843
0.012828
0.006844
-0.058512
0.083971
-0.007517
-0.032517
-0.046280
0.047183
-0.037225
0.090214
-0.002052
0.031929
0.012762
-0.041063
0.007845
-0.036148
-0.004901
-0.045388
-0.053713
-0.038313
-0.043565
-0.008671
-0.057487
0.049828
-0.037507
0.053893
-0.019662
-0.044740
-0.010598
-0.032287
-0.019307
0.062408
0.006786
0.014570
0.028121
-0.035206
0.025618
-0.032002
-0.024970
-0.015964
-0.027017
0.037229
-0.020153
-0.029386
0.017926
0.006792
0.077832
