0.168827 0.147314 -0.264191 -0.240447 -0.270385 0.116265 0.117488 -0.163122 -0.067858 0.074832 0.103813 -0.171815 -0.150892 -0.062864 0.062979 0.182524 -0.135899 -0.179263 -0.232708 -0.104845 -0.113294 -0.202186 0.147599 0.032428 0.039890 -0.017650 0.192318 -0.078353 -0.134400 -0.118669 -0.123952 -0.118702 0.163054 -0.157377 0.037528 -0.162507 -0.083452 -0.090867 -0.273419 0.043288 -0.061863 0.126435 -0.193565 0.130403 0.153608 -0.106547 0.153955 -0.214218 0.018637 -0.193589 -0.029529 -0.108240 -0.281595 -0.225886 -0.103620 -0.135902 -0.082861 -0.116427 -0.105659 0.159993 -0.056215 -0.181759 0.053230 0.107154 0.017842 0.070558 0.061641 0.040510 -0.049921 0.042353 -0.177941 0.217027 0.112122 -0.101688 -0.173500 -0.116643 -0.081071 -0.062944 -0.145105 -0.016157 0.048914 0.130892 -0.082729 -0.325497
-0.219120 -0.178219 -0.051192 0.164615 -0.083158 0.096096 0.105316 -0.024994 0.051223 -0.161670 -0.187032 -0.011805 -0.227489 -0.167724 -0.020762 -0.442740 -0.213581 -0.189293 0.080870 -0.102040 -0.146886 -0.071670 0.020507 -0.227936 -0.111575 -0.116286 -0.101529 0.180715 0.055042 -0.240525 -0.153767 -0.044426 -0.242102 -0.068303 -0.006128 -0.169296 0.071078 0.121963 0.298637 -0.080166 0.011516 -0.169898 0.061392 -0.107336 0.164284 -0.058125 -0.347774 0.154506 0.130975 0.195766 0.133362 -0.051049 0.032993 0.058448 0.153189 0.234934 -0.048086 -0.024450 -0.055528 -0.155127 -0.303771 -0.158028 0.043980 -0.057667 -0.059359 -0.105760 -0.042180 0.133749 -0.262504 0.116896 -0.142899 -0.092651 0.143758 -0.169352 0.112219 -0.016082 -0.130284 -0.009625 -0.068862 0.055270 -0.067639 -0.160419 -0.135230 0.194876
0.002575 -0.196989 -0.082975 -0.262004 0.096080 -0.052006 0.052463 0.196208 -0.113197 -0.150901 -0.001466 -0.009295 -0.124160 -0.127280 0.037961 -0.166626 -0.163756 0.098401 -0.199652 -0.059438 -0.008343 -0.160223 0.137933 0.058448 0.163135 0.011541 -0.284625 -0.064141 -0.312011 -0.042312 -0.143553 -0.143600 0.090549 0.156072 0.067820 0.049099 0.154893 0.028868 0.027081 0.158675 -0.145876 -0.046220 0.040679 -0.017232 0.202815 -0.015791 -0.223523 0.023064 0.083935 -0.289941 -0.163770 0.036526 0.157608 -0.041321 -0.122990 -0.155483 -0.006423 0.104645 -0.090801 0.137076 -0.254738 0.071933 -0.060163 -0.151450 0.129314 -0.094849 0.005136 0.163598 0.266498 0.077601 -0.197630 0.084457 0.165784 -0.179889 0.098728 -0.274486 -0.163302 0.074434 0.022707 -0.021269 -0.071348 0.068125 0.036948 0.091120
0.144090 -0.114506 0.099810 -0.321114 0.102682 -0.093529 -0.191699 0.061885 0.164002 -0.187138 0.017083 0.185754 0.116693 0.015432 -0.045508 -0.320610 -0.018843 -0.093307 0.005993 -0.205193 -0.064575 0.117508 -0.160693 0.170106 -0.080835 -0.071575 0.026626 -0.314928 -0.099192 -0.053300 -0.271531 -0.145012 0.077294 -0.060532 -0.127212 0.146114 -0.101992 0.096231 -0.242074 -0.088737 0.060893 0.104841 0.185818 0.046579 0.109681 0.038185 -0.095036 0.067208 -0.179712 0.125351 -0.258138 0.033563 -0.207471 -0.177721 0.053021 -0.044843 0.006523 0.165064 -0.041965 -0.262390 -0.155080 -0.210632 0.074544 -0.136798 0.057537 0.123457 0.013074 0.132473 -0.055787 0.044744 0.155602 -0.099176 -0.084009 -0.079306 -0.133923 0.068341 0.065952 -0.001907 -0.130083 -0.018328 -0.059965 0.048702 0.059964 0.199428
-0.300810 0.053420 0.154668 0.229584 0.098365 -0.038042 -0.128214 -0.070343 -0.378650 -0.145983 -0.181626 -0.135711 -0.055232 -0.262947 -0.135163 0.161812 -0.012891 0.027145 0.203500 0.210984 -0.173381 -0.005180 -0.129215 0.074115 0.116369 -0.037318 -0.022555 0.109742 0.071528 0.080488 -0.035805 0.122947 -0.018535 0.022667 0.032473 -0.072679 0.077472 0.010296 -0.153631 -0.199793 -0.172861 -0.231619 -0.179296 -0.136857 0.079857 -0.179342 -0.003073 0.082806 0.184218 -0.142868 0.182642 0.064204 0.132159 0.001388 -0.113817 -0.013174 -0.101542 -0.265995 0.064379 -0.091654 0.107992 0.082955 -0.008143 -0.134885 -0.058716 -0.208531 -0.161030 0.148001 -0.015189 -0.339611 0.076174 -0.122626 -0.048560 -0.171057 -0.161766 0.026624 0.133193 -0.085521 -0.102234 0.017198 -0.042466 0.058083 0.153107 -0.202296
0.111068 0.041450 0.094847 0.034138 -0.059019 -0.061476 -0.047188 -0.198476 0.153977 0.134152 -0.241001 0.117632 0.176549 0.153458 0.084703 0.001680 0.233838 0.011791 -0.044255 -0.030199 0.068978 -0.084735 -0.285930 0.027719 -0.158933 -0.062668 0.165455 -0.120809 -0.248092 -0.191172 -0.132863 0.093167 0.104020 0.095581 -0.143017 0.075110 -0.108880 -0.042870 0.005718 -0.206414 0.096533 0.005591 -0.210130 -0.232606 -0.242625 0.109140 0.112822 -0.145587 -0.174596 0.197444 -0.171300 0.035510 -0.161316 0.027387 0.048220 0.051105 -0.078207 -0.067388 -0.045235 0.010074 0.195274 0.062365 0.085592 -0.136761 -0.048660 0.019049 -0.119080 -0.166325 -0.217872 0.158273 -0.170606 -0.162361 -0.238398 0.089461 0.180723 -0.091824 -0.120081 0.092103 -0.083245 0.030083 0.080815 -0.184623 -0.061685 -0.006348
-0.253594 -0.131698 0.011543 -0.044125 -0.255514 -0.140208 0.013093 0.102166 -0.268068 0.073357 -0.172894 -0.059838 -0.197625 0.133452 -0.033503 0.124292 0.040205 -0.023371 -0.206838 -0.143790 0.029178 -0.161756 -0.154551 -0.201166 -0.094844 -0.114417 0.132806 -0.148511 0.037276 -0.031925 0.075531 -0.204878 -0.250076 -0.168614 0.045777 0.184852 -0.076573 -0.091823 0.106277 0.005341 0.060698 -0.015000 -0.281868 -0.171316 -0.046460 -0.123467 -0.106734 -0.331210 -0.023476 -0.236723 -0.126950 0.077235 0.011865 0.215127 -0.195284 0.178316 0.103720 -0.323794 -0.025995 0.156311 0.161188 -0.002787 -0.077827 0.137328 -0.074894 0.195015 -0.080250 0.043614 0.232421 -0.128461 -0.254078 -0.198784 0.064817 0.012926 -0.062528 -0.082485 0.055592 -0.035601 -0.037032 0.068322 -0.031194 -0.226022 -0.248767 -0.169932
0.017543 -0.078268 0.007212 -0.174254 0.027734 0.108119 -0.220903 0.028086 0.139325 -0.207478 0.039740 -0.139642 0.039322 -0.311170 -0.159402 -0.080337 0.147001 -0.143882 -0.191545 0.170908 0.141895 0.119100 0.185507 -0.399552 -0.089402 0.179018 -0.291409 -0.050736 0.041996 0.016702 0.230698 -0.099554 0.018363 0.016736 -0.098387 -0.337151 -0.153903 -0.031772 -0.158617 -0.033635 -0.057380 0.019053 0.142620 0.019483 -0.076333 -0.191465 -0.048085 0.187805 0.042079 -0.079713 0.162217 0.091417 0.089386 -0.122030 0.214080 -0.223004 -0.088095 0.106780 0.074327 0.034154 -0.336730 -0.176312 -0.097756 -0.072450 0.010897 -0.339104 0.203711 -0.060700 -0.018995 -0.084041 -0.094982 0.107129 -0.103785 0.043087 -0.105742 -0.059650 0.098255 0.063957 0.205050 -0.018058 0.047438 -0.044408 0.181395 0.048916
0.067333 0.146676 0.027050 -0.042457 0.030325 -0.233885 0.195593 0.165379 -0.077573 -0.004125 -0.134445 -0.255883 -0.231723 0.071748 -0.261193 -0.118924 0.038012 0.120043 -0.247233 -0.060854 -0.155828 0.173614 0.178868 0.072154 -0.230925 -0.128241 -0.076986 -0.245002 0.129645 -0.029570 -0.001652 -0.036300 -0.060516 0.012467 -0.089760 0.001892 0.044965 -0.093950 -0.157492 0.149599 -0.163412 0.064585 0.110567 -0.090760 -0.155532 0.187569 0.085253 -0.025941 -0.306645 0.125503 0.075861 -0.012613 0.012019 0.003135 -0.226574 -0.057783 -0.061439 -0.166427 0.051351 -0.059405 0.173303 -0.096126 -0.040787 -0.043027 -0.070720 -0.041079 -0.126034 -0.058887 -0.182447 -0.075225 0.170350 -0.188519 0.214084 -0.217089 0.033046 -0.250273 -0.011835 -0.032220 -0.049365 0.004803 0.019517 -0.105967 -0.156881 0.197949
0.049525 0.025313 0.191143 0.002464 0.149884 -0.256213 -0.059691 -0.220402 -0.234940 0.141359 0.194754 -0.120631 0.020294 -0.140918 0.024710 0.093638 0.182125 -0.149626 0.175042 -0.040036 0.122889 0.128795 -0.115808 0.123993 -0.033291 0.109514 -0.093515 0.105510 0.202782 0.050792 -0.014652 0.059058 0.172988 -0.202931 -0.049746 -0.055107 -0.236265 0.000729 0.057434 0.047821 -0.061687 -0.164973 0.185559 0.212494 -0.204118 -0.037032 0.168108 0.098394 0.076077 0.041004 -0.074574 0.066166 0.020487 -0.231071 -0.102786 -0.221200 0.065387 0.009392 0.027519 -0.104459 -0.065371 -0.046459 -0.027658 -0.049997 -0.092361 -0.230182 -0.083569 -0.342865 0.009254 -0.169027 0.147730 -0.199813 -0.250450 0.001167 -0.172286 0.163887 -0.201353 0.071241 -0.162265 -0.043268 -0.039782 -0.029932 -0.056036 -0.149972
